<?xml version="1.0"?>
<opencv_storage>
<!-- Created using Computer Vision System Toolbox(tm) for MATLAB(R) -->
<!-- Version 9.1.0.441655 (R2016b) -->
<!-- Compatible with OpenCV 2.4 -->
<cascade>
  <stageType>BOOST</stageType>
  <featureType>HAAR</featureType>
  <height>32</height>
  <width>83</width>
  <stageParams>
    <boostType>GAB</boostType>
    <minHitRate>9.9500000476837158e-01</minHitRate>
    <maxFalseAlarm>1.0000000149011612e-01</maxFalseAlarm>
    <weightTrimRate>9.4999999999999996e-01</weightTrimRate>
    <maxDepth>1</maxDepth>
    <maxWeakCount>100</maxWeakCount></stageParams>
  <featureParams>
    <maxCatCount>0</maxCatCount>
    <featSize>1</featSize>
    <mode>BASIC</mode></featureParams>
  <stageNum>5</stageNum>
  <stages>
    <!-- stage 0 -->
    <_>
      <maxWeakCount>1</maxWeakCount>
      <stageThreshold>1.</stageThreshold>
      <weakClassifiers>
        <_>
          <internalNodes>
            0 -1 3 -2.0711518824100494e-02</internalNodes>
          <leafValues>
            1. -1.</leafValues></_></weakClassifiers></_>
    <!-- stage 1 -->
    <_>
      <maxWeakCount>1</maxWeakCount>
      <stageThreshold>9.6078431606292725e-01</stageThreshold>
      <weakClassifiers>
        <_>
          <internalNodes>
            0 -1 5 3.6550927907228470e-02</internalNodes>
          <leafValues>
            -1. 9.6078431606292725e-01</leafValues></_></weakClassifiers></_>
    <!-- stage 2 -->
    <_>
      <maxWeakCount>1</maxWeakCount>
      <stageThreshold>7.5438594818115234e-01</stageThreshold>
      <weakClassifiers>
        <_>
          <internalNodes>
            0 -1 7 4.9926880747079849e-03</internalNodes>
          <leafValues>
            -1. 7.5438594818115234e-01</leafValues></_></weakClassifiers></_>
    <!-- stage 3 -->
    <_>
      <maxWeakCount>2</maxWeakCount>
      <stageThreshold>-1.6924721002578735e-01</stageThreshold>
      <weakClassifiers>
        <_>
          <internalNodes>
            0 -1 1 -2.2610872983932495e-02</internalNodes>
          <leafValues>
            7.7777779102325439e-01 -9.5833331346511841e-01</leafValues></_>
        <_>
          <internalNodes>
            0 -1 2 -9.9836904555559158e-03</internalNodes>
          <leafValues>
            7.8908610343933105e-01 -9.0520495176315308e-01</leafValues></_></weakClassifiers></_>
    <!-- stage 4 -->
    <_>
      <maxWeakCount>3</maxWeakCount>
      <stageThreshold>5.0446099042892456e-01</stageThreshold>
      <weakClassifiers>
        <_>
          <internalNodes>
            0 -1 0 -1.1275517940521240e-01</internalNodes>
          <leafValues>
            8.4905660152435303e-01 -9.7826087474822998e-01</leafValues></_>
        <_>
          <internalNodes>
            0 -1 6 -6.0124434530735016e-03</internalNodes>
          <leafValues>
            7.4538493156433105e-01 -9.7892868518829346e-01</leafValues></_>
        <_>
          <internalNodes>
            0 -1 4 -2.5403294712305069e-03</internalNodes>
          <leafValues>
            7.3733693361282349e-01 -1.</leafValues></_></weakClassifiers></_></stages>
  <features>
    <_>
      <rects>
        <_>
          0 0 82 18 -1.</_>
        <_>
          0 9 82 9 2.</_></rects>
      <tilted>0</tilted></_>
    <_>
      <rects>
        <_>
          0 4 6 21 -1.</_>
        <_>
          3 4 3 21 2.</_></rects>
      <tilted>0</tilted></_>
    <_>
      <rects>
        <_>
          0 5 4 16 -1.</_>
        <_>
          2 5 2 16 2.</_></rects>
      <tilted>0</tilted></_>
    <_>
      <rects>
        <_>
          0 13 10 19 -1.</_>
        <_>
          5 13 5 19 2.</_></rects>
      <tilted>0</tilted></_>
    <_>
      <rects>
        <_>
          5 31 20 1 -1.</_>
        <_>
          15 31 10 1 2.</_></rects>
      <tilted>0</tilted></_>
    <_>
      <rects>
        <_>
          63 19 20 13 -1.</_>
        <_>
          73 19 10 13 2.</_></rects>
      <tilted>0</tilted></_>
    <_>
      <rects>
        <_>
          76 0 6 12 -1.</_>
        <_>
          76 6 6 6 2.</_></rects>
      <tilted>0</tilted></_>
    <_>
      <rects>
        <_>
          79 16 4 11 -1.</_>
        <_>
          81 16 2 11 2.</_></rects>
      <tilted>0</tilted></_></features></cascade>
</opencv_storage>
